<?xml version="1.0"?>
<opencv_storage>
<cascade>
  <stageType>BOOST</stageType>
  <featureType>LBP</featureType>
  <height>25</height>
  <width>75</width>
  <stageParams>
    <boostType>GAB</boostType>
    <minHitRate>9.9500000476837158e-01</minHitRate>
    <maxFalseAlarm>5.2499997615814209e-01</maxFalseAlarm>
    <weightTrimRate>9.4999999999999996e-01</weightTrimRate>
    <maxDepth>1</maxDepth>
    <maxWeakCount>100</maxWeakCount></stageParams>
  <featureParams>
    <maxCatCount>256</maxCatCount>
    <featSize>1</featSize></featureParams>
  <stageNum>12</stageNum>
  <stages>
    <!-- stage 0 -->
    <_>
      <maxWeakCount>3</maxWeakCount>
      <stageThreshold>-1.3970299959182739e+00</stageThreshold>
      <weakClassifiers>
        <_>
          <internalNodes>
            0 -1 16 -783223331 -11468267 286331295 -183430821 -108483585
            -74841976 -2004825953 -6440036</internalNodes>
          <leafValues>
            -9.6177369356155396e-01 4.5161288976669312e-01</leafValues></_>
        <_>
          <internalNodes>
            0 -1 5 -204549889 -82489139 1363214813 -15002167 -1342047233
            -1716944758 1519120047 -3188005</internalNodes>
          <leafValues>
            -9.1706234216690063e-01 7.4967461824417114e-01</leafValues></_>
        <_>
          <internalNodes>
            0 -1 20 -607847939 -203620065 1560334711 -44367654
            -516384792 -1916235640 -920994817 -7669508</internalNodes>
          <leafValues>
            -9.3158054351806641e-01 6.9553917646408081e-01</leafValues></_></weakClassifiers></_>
    <!-- stage 1 -->
    <_>
      <maxWeakCount>3</maxWeakCount>
      <stageThreshold>-1.3896206617355347e+00</stageThreshold>
      <weakClassifiers>
        <_>
          <internalNodes>
            0 -1 15 1362623487 -552480701 289624447 1430620497
            -268326209 -1154842615 -1060517121 -15869749</internalNodes>
          <leafValues>
            -9.4848483800888062e-01 4.3999999761581421e-01</leafValues></_>
        <_>
          <internalNodes>
            0 -1 29 -204472354 -235470847 -1073704871 -681852415
            -1694334820 -1710569462 -936722225 -69215265</internalNodes>
          <leafValues>
            -9.3300849199295044e-01 4.4676110148429871e-01</leafValues></_>
        <_>
          <internalNodes>
            0 -1 26 -254715045 1604141099 17076731 1595117843 1107333610
            -1173684215 1124139195 -630201685</internalNodes>
          <leafValues>
            -8.8789695501327515e-01 5.7112121582031250e-01</leafValues></_></weakClassifiers></_>
    <!-- stage 2 -->
    <_>
      <maxWeakCount>3</maxWeakCount>
      <stageThreshold>-1.4507570266723633e+00</stageThreshold>
      <weakClassifiers>
        <_>
          <internalNodes>
            0 -1 6 -77603841 -107794341 -1055304933 -148638927
            -789845249 -357848881 -1651835429 -3669</internalNodes>
          <leafValues>
            -9.3553221225738525e-01 5.0000000000000000e-01</leafValues></_>
        <_>
          <internalNodes>
            0 -1 33 -8679 -741129829 1627439169 -37263861 -355874083
            -431378232 -384311079 -208666725</internalNodes>
          <leafValues>
            -9.2573726177215576e-01 3.4466966986656189e-01</leafValues></_>
        <_>
          <internalNodes>
            0 -1 23 1349644383 2136031569 2031113087 1360333087
            1620167167 -1145536277 -124716865 2142888099</internalNodes>
          <leafValues>
            -8.5989445447921753e-01 5.6901490688323975e-01</leafValues></_></weakClassifiers></_>
    <!-- stage 3 -->
    <_>
      <maxWeakCount>3</maxWeakCount>
      <stageThreshold>-1.4541964530944824e+00</stageThreshold>
      <weakClassifiers>
        <_>
          <internalNodes>
            0 -1 28 -644614657 -41610597 -774818369 -2289249 -91505253
            -1447542753 -101475153 -537142849</internalNodes>
          <leafValues>
            -9.4238060712814331e-01 2.5490197539329529e-01</leafValues></_>
        <_>
          <internalNodes>
            0 -1 30 -40109765 -141340457 1073795273 -48762147 -934543361
            -890535541 -1177900034 -1174669057</internalNodes>
          <leafValues>
            -8.8302826881408691e-01 4.0734270215034485e-01</leafValues></_>
        <_>
          <internalNodes>
            0 -1 3 -673789698 -611332208 -1073155813 -547368063
            -376733249 -123105269 -913098293 -76826897</internalNodes>
          <leafValues>
            -9.1915863752365112e-01 5.5695050954818726e-01</leafValues></_></weakClassifiers></_>
    <!-- stage 4 -->
    <_>
      <maxWeakCount>3</maxWeakCount>
      <stageThreshold>-1.4426568746566772e+00</stageThreshold>
      <weakClassifiers>
        <_>
          <internalNodes>
            0 -1 21 -33554945 -111963137 1943660797 -24137 -70255905
            -69013106 -541016657 -1200961</internalNodes>
          <leafValues>
            -9.3393391370773315e-01 3.6842104792594910e-01</leafValues></_>
        <_>
          <internalNodes>
            0 -1 24 -786768929 -1177458443 -884376833 -550936308
            -72827906 -1112880999 -322260548 -1648391685</internalNodes>
          <leafValues>
            -8.7296760082244873e-01 4.9232017993927002e-01</leafValues></_>
        <_>
          <internalNodes>
            0 -1 13 -153911301 -584209956 1503318495 -375992901
            -111214849 -67398781 -1142425153 -876707852</internalNodes>
          <leafValues>
            -9.3811035156250000e-01 5.0584465265274048e-01</leafValues></_></weakClassifiers></_>
    <!-- stage 5 -->
    <_>
      <maxWeakCount>3</maxWeakCount>
      <stageThreshold>-1.8300184011459351e+00</stageThreshold>
      <weakClassifiers>
        <_>
          <internalNodes>
            0 -1 22 -1623196673 -1080566793 -847013889 -2239541
            -1169689601 -67271969 -4285953 -1107389761</internalNodes>
          <leafValues>
            -9.5046436786651611e-01 -2.5641025975346565e-02</leafValues></_>
        <_>
          <internalNodes>
            0 -1 32 -209716225 -1418221129 288748031 -268446145
            -422790663 -976629521 -318059013 -536880645</internalNodes>
          <leafValues>
            -8.6281526088714600e-01 4.8693799972534180e-01</leafValues></_>
        <_>
          <internalNodes>
            0 -1 18 791952375 -8401933 -577399299 -195587 -1158766593
            -71585045 469449215 -52102466</internalNodes>
          <leafValues>
            -9.4156205654144287e-01 5.3594130277633667e-01</leafValues></_></weakClassifiers></_>
    <!-- stage 6 -->
    <_>
      <maxWeakCount>3</maxWeakCount>
      <stageThreshold>-1.6018663644790649e+00</stageThreshold>
      <weakClassifiers>
        <_>
          <internalNodes>
            0 -1 10 -645931521 -101051405 -1651376129 -545627169
            -575818753 -4195844 -37967169 -2098754</internalNodes>
          <leafValues>
            -9.4590419530868530e-01 -7.8947365283966064e-02</leafValues></_>
        <_>
          <internalNodes>
            0 -1 0 -287309825 2122504922 -274873355 2107560911 -74883721
            -19413731 -812679589 -537398789</internalNodes>
          <leafValues>
            -9.1995477676391602e-01 3.1885015964508057e-01</leafValues></_>
        <_>
          <internalNodes>
            0 -1 31 -137363521 -1892167205 -271196162 -27878947
            1941568889 -21388117 -19138314 -16778798</internalNodes>
          <leafValues>
            -9.7481244802474976e-01 3.8120490312576294e-01</leafValues></_></weakClassifiers></_>
    <!-- stage 7 -->
    <_>
      <maxWeakCount>3</maxWeakCount>
      <stageThreshold>-1.5027635097503662e+00</stageThreshold>
      <weakClassifiers>
        <_>
          <internalNodes>
            0 -1 7 -168690689 -11415073 -1848378881 -537913473
            -340960261 -38353573 -5719045 -2884625</internalNodes>
          <leafValues>
            -9.4903475046157837e-01 -1.3333333656191826e-02</leafValues></_>
        <_>
          <internalNodes>
            0 -1 25 -1617299973 -1076547713 -81461827 -4211923 -41959425
            -73942301 -354920963 -1087441603</internalNodes>
          <leafValues>
            -9.2283904552459717e-01 2.0428377389907837e-01</leafValues></_>
        <_>
          <internalNodes>
            0 -1 11 -621287697 -1397565473 -552288769 2144369055
            -140911681 -339742241 -106971145 -312803466</internalNodes>
          <leafValues>
            -9.6861416101455688e-01 3.6911025643348694e-01</leafValues></_></weakClassifiers></_>
    <!-- stage 8 -->
    <_>
      <maxWeakCount>3</maxWeakCount>
      <stageThreshold>-1.4474247694015503e+00</stageThreshold>
      <weakClassifiers>
        <_>
          <internalNodes>
            0 -1 14 -603979777 -577122889 -1106413569 -1209931 -70266373
            -1141907021 -610029669 -4421</internalNodes>
          <leafValues>
            -9.2427617311477661e-01 6.5217393636703491e-01</leafValues></_>
        <_>
          <internalNodes>
            0 -1 9 -574000165 -42164237 -183494179 -1622255717
            -1047811009 -1952456005 -1441101409 -282646029</internalNodes>
          <leafValues>
            -9.0855205059051514e-01 3.4956267476081848e-01</leafValues></_>
        <_>
          <internalNodes>
            0 -1 8 -774476833 -33713739 1061507959 -44700015 -1644594865
            2040469567 2143847419 -548160221</internalNodes>
          <leafValues>
            -8.7271136045455933e-01 5.2192413806915283e-01</leafValues></_></weakClassifiers></_>
    <!-- stage 9 -->
    <_>
      <maxWeakCount>3</maxWeakCount>
      <stageThreshold>-1.5936188697814941e+00</stageThreshold>
      <weakClassifiers>
        <_>
          <internalNodes>
            0 -1 17 -1053326849 -36583107 -1690756609 -4876865
            -828798465 -7855465 -41812579 -537957397</internalNodes>
          <leafValues>
            -9.5576620101928711e-01 -1.9230769574642181e-01</leafValues></_>
        <_>
          <internalNodes>
            0 -1 35 -12582945 -73541409 -570450540 -67639905 -875583499
            -352585521 -139723020 -840958997</internalNodes>
          <leafValues>
            -8.8198447227478027e-01 3.1142219901084900e-01</leafValues></_>
        <_>
          <internalNodes>
            0 -1 1 -100511745 -2330113 -165543949 -4815628 1800231931
            -67788125 802944957 -559907</internalNodes>
          <leafValues>
            -9.4927483797073364e-01 4.1977894306182861e-01</leafValues></_></weakClassifiers></_>
    <!-- stage 10 -->
    <_>
      <maxWeakCount>3</maxWeakCount>
      <stageThreshold>-1.5959100723266602e+00</stageThreshold>
      <weakClassifiers>
        <_>
          <internalNodes>
            0 -1 4 -805445641 -36497577 -241707073 -44575789 -13792257
            -38436353 2073919419 -263733</internalNodes>
          <leafValues>
            -9.4194042682647705e-01 4.9180328845977783e-02</leafValues></_>
        <_>
          <internalNodes>
            0 -1 2 -171968529 -890588085 1369937847 -115871458
            1394573119 -3203971 1540995959 -71303393</internalNodes>
          <leafValues>
            -8.8822120428085327e-01 3.1491297483444214e-01</leafValues></_>
        <_>
          <internalNodes>
            0 -1 19 -1486922027 -16875373 -1223730177 -35727407
            -471927815 -68517189 -1146545171 -21070860</internalNodes>
          <leafValues>
            -9.6888256072998047e-01 3.9414331316947937e-01</leafValues></_></weakClassifiers></_>
    <!-- stage 11 -->
    <_>
      <maxWeakCount>3</maxWeakCount>
      <stageThreshold>-1.7254552841186523e+00</stageThreshold>
      <weakClassifiers>
        <_>
          <internalNodes>
            0 -1 12 -417991681 -572956203 1429862909 -67530513
            -1720846081 -6420312 1870961343 -1312609</internalNodes>
          <leafValues>
            -9.3768996000289917e-01 7.4074074625968933e-02</leafValues></_>
        <_>
          <internalNodes>
            0 -1 27 -1149896195 -67242589 -1181539689 -669229
            -1841824003 -80048997 191227900 -608175684</internalNodes>
          <leafValues>
            -8.9289462566375732e-01 1.9940240681171417e-01</leafValues></_>
        <_>
          <internalNodes>
            0 -1 34 966747896 -1582624693 -514606945 -540025403
            -209499441 -609450581 2076683007 -1547717633</internalNodes>
          <leafValues>
            -9.0663468837738037e-01 3.9958581328392029e-01</leafValues></_></weakClassifiers></_></stages>
  <features>
    <_>
      <rect>
        0 8 2 2</rect></_>
    <_>
      <rect>
        0 8 14 3</rect></_>
    <_>
      <rect>
        0 16 2 2</rect></_>
    <_>
      <rect>
        1 0 7 7</rect></_>
    <_>
      <rect>
        1 0 15 2</rect></_>
    <_>
      <rect>
        1 2 14 7</rect></_>
    <_>
      <rect>
        2 5 11 5</rect></_>
    <_>
      <rect>
        3 19 14 2</rect></_>
    <_>
      <rect>
        4 22 5 1</rect></_>
    <_>
      <rect>
        6 19 9 2</rect></_>
    <_>
      <rect>
        8 18 13 2</rect></_>
    <_>
      <rect>
        9 16 12 3</rect></_>
    <_>
      <rect>
        10 0 11 1</rect></_>
    <_>
      <rect>
        11 9 4 2</rect></_>
    <_>
      <rect>
        12 2 12 3</rect></_>
    <_>
      <rect>
        13 4 15 3</rect></_>
    <_>
      <rect>
        13 10 17 4</rect></_>
    <_>
      <rect>
        14 0 12 1</rect></_>
    <_>
      <rect>
        14 2 16 4</rect></_>
    <_>
      <rect>
        14 9 2 1</rect></_>
    <_>
      <rect>
        14 13 13 4</rect></_>
    <_>
      <rect>
        19 1 15 4</rect></_>
    <_>
      <rect>
        26 5 15 4</rect></_>
    <_>
      <rect>
        27 0 16 2</rect></_>
    <_>
      <rect>
        29 21 12 1</rect></_>
    <_>
      <rect>
        32 3 10 3</rect></_>
    <_>
      <rect>
        41 0 8 2</rect></_>
    <_>
      <rect>
        43 20 4 1</rect></_>
    <_>
      <rect>
        46 19 9 2</rect></_>
    <_>
      <rect>
        51 0 8 8</rect></_>
    <_>
      <rect>
        51 6 7 4</rect></_>
    <_>
      <rect>
        52 9 6 1</rect></_>
    <_>
      <rect>
        54 21 6 1</rect></_>
    <_>
      <rect>
        63 2 4 4</rect></_>
    <_>
      <rect>
        64 22 1 1</rect></_>
    <_>
      <rect>
        66 10 3 2</rect></_></features></cascade>
</opencv_storage>
