<?xml version="1.0"?>
<opencv_storage>
<cascade>
  <stageType>BOOST</stageType>
  <featureType>LBP</featureType>
  <height>30</height>
  <width>64</width>
  <stageParams>
    <boostType>GAB</boostType>
    <minHitRate>9.9500000476837158e-01</minHitRate>
    <maxFalseAlarm>4.4999998807907104e-01</maxFalseAlarm>
    <weightTrimRate>9.4999999999999996e-01</weightTrimRate>
    <maxDepth>1</maxDepth>
    <maxWeakCount>100</maxWeakCount></stageParams>
  <featureParams>
    <maxCatCount>256</maxCatCount>
    <featSize>1</featSize></featureParams>
  <stageNum>14</stageNum>
  <stages>
    <!-- stage 0 -->
    <_>
      <maxWeakCount>2</maxWeakCount>
      <stageThreshold>-5.0461399555206299e-01</stageThreshold>
      <weakClassifiers>
        <_>
          <internalNodes>
            0 -1 8 -774841859 -581742461 1342206463 -108949485
            -2146770433 -91750264 -762799893 -13657974</internalNodes>
          <leafValues>
            -9.6584117412567139e-01 5.3846156597137451e-01</leafValues></_>
        <_>
          <internalNodes>
            0 -1 7 -720243974 -608316987 285808735 -612298351
            -1431578373 -1985445752 -649072961 -546602309</internalNodes>
          <leafValues>
            -9.6536386013031006e-01 4.6122714877128601e-01</leafValues></_></weakClassifiers></_>
    <!-- stage 1 -->
    <_>
      <maxWeakCount>3</maxWeakCount>
      <stageThreshold>-1.5418910980224609e+00</stageThreshold>
      <weakClassifiers>
        <_>
          <internalNodes>
            0 -1 22 -610535937 -640577337 -1073622819 -540602093
            -169952533 -604340021 -1697605381 -3147057</internalNodes>
          <leafValues>
            -9.5262265205383301e-01 5.7142859697341919e-01</leafValues></_>
        <_>
          <internalNodes>
            0 -1 30 -639895041 -1967025899 1359302931 -548077341
            -1727166280 -1413969780 -1333208069 -807666789</internalNodes>
          <leafValues>
            -9.4238096475601196e-01 2.7585974335670471e-01</leafValues></_>
        <_>
          <internalNodes>
            0 -1 21 999817081 -1692430241 -536792579 -2371137 -91245653
            -1165234021 -907613991 469481181</internalNodes>
          <leafValues>
            -9.9024337530136108e-01 3.5311257839202881e-01</leafValues></_></weakClassifiers></_>
    <!-- stage 2 -->
    <_>
      <maxWeakCount>3</maxWeakCount>
      <stageThreshold>-1.4774404764175415e+00</stageThreshold>
      <weakClassifiers>
        <_>
          <internalNodes>
            0 -1 38 -783293745 -788037630 1073741891 -264060854
            -528252790 570433536 -2147254117 -1009779825</internalNodes>
          <leafValues>
            -9.4923859834671021e-01 4.2857143282890320e-01</leafValues></_>
        <_>
          <internalNodes>
            0 -1 4 -111254561 -551698341 -1308555693 -137244398
            -1470555717 -90308472 -1693803877 -10759745</internalNodes>
          <leafValues>
            -9.3415677547454834e-01 3.2232040166854858e-01</leafValues></_>
        <_>
          <internalNodes>
            0 -1 34 -70788354 735826363 -1054239718 -1722036021
            -209460481 34152613 -729556517 -538980097</internalNodes>
          <leafValues>
            -8.5052227973937988e-01 6.1781311035156250e-01</leafValues></_></weakClassifiers></_>
    <!-- stage 3 -->
    <_>
      <maxWeakCount>3</maxWeakCount>
      <stageThreshold>-1.4378097057342529e+00</stageThreshold>
      <weakClassifiers>
        <_>
          <internalNodes>
            0 -1 18 -13632001 -14742275 -1325310497 -612380235
            -1953699361 -108279636 -76547073 -1055745</internalNodes>
          <leafValues>
            -9.4280910491943359e-01 5.2380955219268799e-01</leafValues></_>
        <_>
          <internalNodes>
            0 -1 9 -685803523 -83907 -547896897 -48721449 -39277697
            -73183969 -930395139 -12596577</internalNodes>
          <leafValues>
            -9.1295045614242554e-01 4.0082737803459167e-01</leafValues></_>
        <_>
          <internalNodes>
            0 -1 31 -284272769 -2890915 -258344005 -8398470 -74716433
            -85225327 -74515819 -1263</internalNodes>
          <leafValues>
            -8.9582806825637817e-01 5.6093209981918335e-01</leafValues></_></weakClassifiers></_>
    <!-- stage 4 -->
    <_>
      <maxWeakCount>3</maxWeakCount>
      <stageThreshold>-1.4712351560592651e+00</stageThreshold>
      <weakClassifiers>
        <_>
          <internalNodes>
            0 -1 27 -1621886977 -539110913 -262549285 -6302725 -89656417
            -1162090853 -1148405505 -1346382855</internalNodes>
          <leafValues>
            -9.7333335876464844e-01 -1.7647059261798859e-01</leafValues></_>
        <_>
          <internalNodes>
            0 -1 24 1048313719 -15398025 -1852322305 -4224801 -12588041
            -302407010 -1074136065 -33697108</internalNodes>
          <leafValues>
            -9.3856805562973022e-01 2.7210748195648193e-01</leafValues></_>
        <_>
          <internalNodes>
            0 -1 13 2013159327 -201359521 1498871735 1541399310
            -1147026497 -68429701 -4853889 -1141190386</internalNodes>
          <leafValues>
            -9.6132326126098633e-01 4.4066628813743591e-01</leafValues></_></weakClassifiers></_>
    <!-- stage 5 -->
    <_>
      <maxWeakCount>3</maxWeakCount>
      <stageThreshold>-1.5732586383819580e+00</stageThreshold>
      <weakClassifiers>
        <_>
          <internalNodes>
            0 -1 29 -541065217 -545527465 -782530795 -551009 -2885633
            -1227890589 -1147405570 -1553</internalNodes>
          <leafValues>
            -9.5217764377593994e-01 1.2820513546466827e-01</leafValues></_>
        <_>
          <internalNodes>
            0 -1 26 -402677773 -270707681 -586326529 -543567497
            -69993505 -1426550642 -69604865 -1900300041</internalNodes>
          <leafValues>
            -9.4317752122879028e-01 3.2157295942306519e-01</leafValues></_>
        <_>
          <internalNodes>
            0 -1 20 1400560635 -268576353 -780659778 -5049412 -630686787
            -71587918 713751469 -139288</internalNodes>
          <leafValues>
            -9.4265395402908325e-01 4.8737370967864990e-01</leafValues></_></weakClassifiers></_>
    <!-- stage 6 -->
    <_>
      <maxWeakCount>3</maxWeakCount>
      <stageThreshold>-1.7017964124679565e+00</stageThreshold>
      <weakClassifiers>
        <_>
          <internalNodes>
            0 -1 3 -134217729 -35662851 -440147461 -34348769 -1315980293
            -343240943 -1298149393 -4457825</internalNodes>
          <leafValues>
            -9.4285714626312256e-01 6.0000002384185791e-01</leafValues></_>
        <_>
          <internalNodes>
            0 -1 35 -1277167745 -246291463 -146295523 -1114119785
            -1954335331 -231735297 -11736081 -1879314953</internalNodes>
          <leafValues>
            -9.5336836576461792e-01 1.9281019270420074e-01</leafValues></_>
        <_>
          <internalNodes>
            0 -1 36 -151034051 -774647457 -992292761 2103404171
            -1314457139 -170551925 -71067299 -658510337</internalNodes>
          <leafValues>
            -9.5174938440322876e-01 4.4355118274688721e-01</leafValues></_></weakClassifiers></_>
    <!-- stage 7 -->
    <_>
      <maxWeakCount>3</maxWeakCount>
      <stageThreshold>-1.4966782331466675e+00</stageThreshold>
      <weakClassifiers>
        <_>
          <internalNodes>
            0 -1 2 -704774177 -541633025 2041828831 -2182753 -2758401
            -807411525 -440152067 -8424757</internalNodes>
          <leafValues>
            -9.5833331346511841e-01 -1.0344827920198441e-01</leafValues></_>
        <_>
          <internalNodes>
            0 -1 17 -1180696585 1071506349 -688407695 -36318881
            -74451041 -107051073 889115896 -53494945</internalNodes>
          <leafValues>
            -9.3881565332412720e-01 2.1907730400562286e-01</leafValues></_>
        <_>
          <internalNodes>
            0 -1 23 2078013273 -1075858721 -207881094 -87032358
            -131073025 -1093950705 -273732609 -549523468</internalNodes>
          <leafValues>
            -9.5275843143463135e-01 4.0047082304954529e-01</leafValues></_></weakClassifiers></_>
    <!-- stage 8 -->
    <_>
      <maxWeakCount>3</maxWeakCount>
      <stageThreshold>-1.7637094259262085e+00</stageThreshold>
      <weakClassifiers>
        <_>
          <internalNodes>
            0 -1 6 -574629889 -610441903 -1726895337 -8400317
            -1689666601 -812914001 -69285217 -3217</internalNodes>
          <leafValues>
            -9.4902294874191284e-01 2.1212121844291687e-01</leafValues></_>
        <_>
          <internalNodes>
            0 -1 1 -69223169 -372384842 -49786569 2077199639 -259278473
            2073664590 -342140321 -76026937</internalNodes>
          <leafValues>
            -9.6295690536499023e-01 1.3266706466674805e-01</leafValues></_>
        <_>
          <internalNodes>
            0 -1 37 -136321556 -423815301 -792650285 -309335739
            -35974550 -74743538 -137162320 -572522753</internalNodes>
          <leafValues>
            -9.4735360145568848e-01 4.1294199228286743e-01</leafValues></_></weakClassifiers></_>
    <!-- stage 9 -->
    <_>
      <maxWeakCount>3</maxWeakCount>
      <stageThreshold>-1.5396873950958252e+00</stageThreshold>
      <weakClassifiers>
        <_>
          <internalNodes>
            0 -1 14 -73400321 -182455505 -309207271 -6299191 -222567521
            -303316293 -563613761 -4194597</internalNodes>
          <leafValues>
            -9.3964797258377075e-01 6.4705884456634521e-01</leafValues></_>
        <_>
          <internalNodes>
            0 -1 33 -975178305 -1378224874 -245893794 -69743801
            2085617533 -340176994 -1766900751 -838865221</internalNodes>
          <leafValues>
            -9.7850239276885986e-01 1.0147880017757416e-01</leafValues></_>
        <_>
          <internalNodes>
            0 -1 16 968358845 735828447 -1236140560 -68355 -898635905
            2077728955 1773189991 -117441845</internalNodes>
          <leafValues>
            -9.6082991361618042e-01 3.7846291065216064e-01</leafValues></_></weakClassifiers></_>
    <!-- stage 10 -->
    <_>
      <maxWeakCount>2</maxWeakCount>
      <stageThreshold>-8.2379263639450073e-01</stageThreshold>
      <weakClassifiers>
        <_>
          <internalNodes>
            0 -1 15 -1310721 -203555873 -273950305 -101479033 -254214145
            -595464453 -22963201 -133909</internalNodes>
          <leafValues>
            -9.4276094436645508e-01 4.5454546809196472e-01</leafValues></_>
        <_>
          <internalNodes>
            0 -1 12 -148963377 -1107899495 -752371329 2128540623
            -1903592468 -343692721 -67373601 -283493634</internalNodes>
          <leafValues>
            -9.9012547731399536e-01 1.1896831542253494e-01</leafValues></_></weakClassifiers></_>
    <!-- stage 11 -->
    <_>
      <maxWeakCount>3</maxWeakCount>
      <stageThreshold>-1.7182251214981079e+00</stageThreshold>
      <weakClassifiers>
        <_>
          <internalNodes>
            0 -1 25 -543162465 -1236649 1468343701 -5903969 -490210305
            -19955475 -1142440982 -9061</internalNodes>
          <leafValues>
            -9.5659720897674561e-01 -1.3793103396892548e-01</leafValues></_>
        <_>
          <internalNodes>
            0 -1 32 -132105 735696383 -569018377 -306851073 -2370819
            -1412945653 -204489345 -540024833</internalNodes>
          <leafValues>
            -9.2488402128219604e-01 1.6600881516933441e-01</leafValues></_>
        <_>
          <internalNodes>
            0 -1 5 -26249249 -1310733378 -1220176905 -283204258
            -1567006849 -1685126797 -271595142 -8390187</internalNodes>
          <leafValues>
            -9.2763680219650269e-01 4.3872341513633728e-01</leafValues></_></weakClassifiers></_>
    <!-- stage 12 -->
    <_>
      <maxWeakCount>3</maxWeakCount>
      <stageThreshold>-1.7696954011917114e+00</stageThreshold>
      <weakClassifiers>
        <_>
          <internalNodes>
            0 -1 28 -73663009 -519580225 -653815473 -104865507 -18874469
            -57035961 -4264994 -786689</internalNodes>
          <leafValues>
            -9.5217764377593994e-01 1.2820513546466827e-01</leafValues></_>
        <_>
          <internalNodes>
            0 -1 0 -291590913 -715073162 -1342071037 -539044938
            1947190135 -1076106081 1955806139 -201989189</internalNodes>
          <leafValues>
            -9.6084350347518921e-01 1.1776093393564224e-01</leafValues></_>
        <_>
          <internalNodes>
            0 -1 11 738062021 -1118582279 1301617499 -1260143 790495166
            -1124355349 -105390089 -560336004</internalNodes>
          <leafValues>
            -9.3527871370315552e-01 3.8444530963897705e-01</leafValues></_></weakClassifiers></_>
    <!-- stage 13 -->
    <_>
      <maxWeakCount>3</maxWeakCount>
      <stageThreshold>-1.2900513410568237e+00</stageThreshold>
      <weakClassifiers>
        <_>
          <internalNodes>
            0 -1 39 -45876289 1350566027 -2113662464 -1073643261
            -704462839 -2146959343 -939343224 -276831605</internalNodes>
          <leafValues>
            -9.5262265205383301e-01 5.7142859697341919e-01</leafValues></_>
        <_>
          <internalNodes>
            0 -1 10 2034274773 -723435465 -586869345 -444116921
            -654245443 -1180382565 -2096135525 -89792374</internalNodes>
          <leafValues>
            -9.0663927793502808e-01 4.7422739863395691e-01</leafValues></_>
        <_>
          <internalNodes>
            0 -1 19 -753802343 -670035405 -1857023139 -583722976
            134856895 -1440644982 -1606381525 -1019557237</internalNodes>
          <leafValues>
            -8.1165605783462524e-01 7.3165810108184814e-01</leafValues></_></weakClassifiers></_></stages>
  <features>
    <_>
      <rect>
        0 6 3 3</rect></_>
    <_>
      <rect>
        0 19 2 1</rect></_>
    <_>
      <rect>
        0 21 14 3</rect></_>
    <_>
      <rect>
        0 24 6 2</rect></_>
    <_>
      <rect>
        1 9 11 4</rect></_>
    <_>
      <rect>
        2 22 5 2</rect></_>
    <_>
      <rect>
        4 0 9 5</rect></_>
    <_>
      <rect>
        5 2 19 9</rect></_>
    <_>
      <rect>
        5 13 17 4</rect></_>
    <_>
      <rect>
        6 26 5 1</rect></_>
    <_>
      <rect>
        7 0 15 5</rect></_>
    <_>
      <rect>
        7 15 16 3</rect></_>
    <_>
      <rect>
        8 20 10 3</rect></_>
    <_>
      <rect>
        9 10 9 5</rect></_>
    <_>
      <rect>
        10 0 6 5</rect></_>
    <_>
      <rect>
        11 3 11 4</rect></_>
    <_>
      <rect>
        12 5 15 3</rect></_>
    <_>
      <rect>
        15 4 14 3</rect></_>
    <_>
      <rect>
        18 13 13 4</rect></_>
    <_>
      <rect>
        19 0 14 3</rect></_>
    <_>
      <rect>
        19 23 9 2</rect></_>
    <_>
      <rect>
        22 6 14 6</rect></_>
    <_>
      <rect>
        23 3 10 4</rect></_>
    <_>
      <rect>
        30 11 6 2</rect></_>
    <_>
      <rect>
        31 15 5 2</rect></_>
    <_>
      <rect>
        37 5 9 6</rect></_>
    <_>
      <rect>
        37 27 6 1</rect></_>
    <_>
      <rect>
        39 27 2 1</rect></_>
    <_>
      <rect>
        40 4 7 7</rect></_>
    <_>
      <rect>
        40 5 8 6</rect></_>
    <_>
      <rect>
        43 24 7 2</rect></_>
    <_>
      <rect>
        44 20 1 1</rect></_>
    <_>
      <rect>
        47 24 5 2</rect></_>
    <_>
      <rect>
        51 19 4 2</rect></_>
    <_>
      <rect>
        52 19 4 3</rect></_>
    <_>
      <rect>
        54 19 2 3</rect></_>
    <_>
      <rect>
        55 0 3 6</rect></_>
    <_>
      <rect>
        60 13 1 1</rect></_>
    <_>
      <rect>
        61 7 1 6</rect></_>
    <_>
      <rect>
        61 8 1 6</rect></_></features></cascade>
</opencv_storage>
