<?xml version="1.0"?>
<opencv_storage>
<cascade>
  <stageType>BOOST</stageType>
  <featureType>LBP</featureType>
  <height>50</height>
  <width>50</width>
  <stageParams>
    <boostType>GAB</boostType>
    <minHitRate>9.9000000953674316e-01</minHitRate>
    <maxFalseAlarm>4.9000000953674316e-01</maxFalseAlarm>
    <weightTrimRate>9.4999999999999996e-01</weightTrimRate>
    <maxDepth>1</maxDepth>
    <maxWeakCount>100</maxWeakCount></stageParams>
  <featureParams>
    <maxCatCount>256</maxCatCount>
    <featSize>1</featSize></featureParams>
  <stageNum>20</stageNum>
  <stages>
    <!-- stage 0 -->
    <_>
      <maxWeakCount>3</maxWeakCount>
      <stageThreshold>-1.1977323293685913e+00</stageThreshold>
      <weakClassifiers>
        <_>
          <internalNodes>
            0 -1 10 -750003205 -683671534 1140850822 -784285628
            -803288901 -1744601078 1493287663 -78386229</internalNodes>
          <leafValues>
            -8.8932806253433228e-01 5.3191488981246948e-01</leafValues></_>
        <_>
          <internalNodes>
            0 -1 7 -712920446 -544927344 268501007 1963033025
            -2138982197 -1970798552 -1836463713 1464058463</internalNodes>
          <leafValues>
            -9.3946069478988647e-01 5.1251536607742310e-01</leafValues></_>
        <_>
          <internalNodes>
            0 -1 62 -111156777 -788299630 67207169 72057217 -939294016
            -1608089464 1090752648 -992230917</internalNodes>
          <leafValues>
            -8.2091969251632690e-01 7.0017373561859131e-01</leafValues></_></weakClassifiers></_>
    <!-- stage 1 -->
    <_>
      <maxWeakCount>3</maxWeakCount>
      <stageThreshold>-1.2413488626480103e+00</stageThreshold>
      <weakClassifiers>
        <_>
          <internalNodes>
            0 -1 12 -213657633 -784023166 285786114 -788471550
            -804810614 -536346622 1208729679 -83625125</internalNodes>
          <leafValues>
            -9.0253806114196777e-01 4.1395348310470581e-01</leafValues></_>
        <_>
          <internalNodes>
            0 -1 17 -648553021 -778846207 312021407 -60829550 -129867161
            -132644736 -251602097 -12322037</internalNodes>
          <leafValues>
            -8.4252852201461792e-01 5.1383805274963379e-01</leafValues></_>
        <_>
          <internalNodes>
            0 -1 59 -606755586 1130514 1359040855 -1958330223 -108799014
            -1433927665 1881775083 -806358081</internalNodes>
          <leafValues>
            -8.1277382373809814e-01 6.1969274282455444e-01</leafValues></_></weakClassifiers></_>
    <!-- stage 2 -->
    <_>
      <maxWeakCount>3</maxWeakCount>
      <stageThreshold>-1.2863157987594604e+00</stageThreshold>
      <weakClassifiers>
        <_>
          <internalNodes>
            0 -1 8 -2099461 -576925056 1073791237 -650055611 -266606161
            -796360690 -736499121 -16528913</internalNodes>
          <leafValues>
            -8.7915408611297607e-01 3.5265699028968811e-01</leafValues></_>
        <_>
          <internalNodes>
            0 -1 50 -741606945 -753680117 -1073688575 1728156167
            -775732823 -1924923390 1351136456 1573898459</internalNodes>
          <leafValues>
            -8.2948267459869385e-01 5.1805442571640015e-01</leafValues></_>
        <_>
          <internalNodes>
            0 -1 15 -137108481 -175909733 -784236159 -1001271269
            -1459064766 -117300725 -334831746 -277650577</internalNodes>
          <leafValues>
            -8.0949014425277710e-01 5.4427599906921387e-01</leafValues></_></weakClassifiers></_>
    <!-- stage 3 -->
    <_>
      <maxWeakCount>3</maxWeakCount>
      <stageThreshold>-1.3182767629623413e+00</stageThreshold>
      <weakClassifiers>
        <_>
          <internalNodes>
            0 -1 18 -530660133 -553152244 285262079 -574520822
            -930506501 -75464567 -637434901 -3454233</internalNodes>
          <leafValues>
            -8.5148513317108154e-01 3.1578946113586426e-01</leafValues></_>
        <_>
          <internalNodes>
            0 -1 49 1474272127 -1387425504 -1862151811 -711895799
            -123159889 464496714 -1195337489 1287646159</internalNodes>
          <leafValues>
            -8.6392664909362793e-01 3.6984494328498840e-01</leafValues></_>
        <_>
          <internalNodes>
            0 -1 22 2077489151 -573369447 687905111 1406173187
            1216432383 -626360184 -762738082 1397901851</internalNodes>
          <leafValues>
            -7.7013951539993286e-01 5.3735280036926270e-01</leafValues></_></weakClassifiers></_>
    <!-- stage 4 -->
    <_>
      <maxWeakCount>3</maxWeakCount>
      <stageThreshold>-1.3113809823989868e+00</stageThreshold>
      <weakClassifiers>
        <_>
          <internalNodes>
            0 -1 41 870267775 -180630053 -105120097 -40207371 -72668437
            -1078353421 -3474178 -17122308</internalNodes>
          <leafValues>
            -8.7624752521514893e-01 3.9393940567970276e-01</leafValues></_>
        <_>
          <internalNodes>
            0 -1 51 1504025371 -111300201 1435701727 2113438219
            1250795117 -1079441389 -90263809 -30095510</internalNodes>
          <leafValues>
            -8.3425641059875488e-01 5.1117390394210815e-01</leafValues></_>
        <_>
          <internalNodes>
            0 -1 30 -2034261509 -1749627404 -553125893 -1073742694
            -1204290115 2105516511 -1141005067 -1880139531</internalNodes>
          <leafValues>
            -8.7106400728225708e-01 5.6695085763931274e-01</leafValues></_></weakClassifiers></_>
    <!-- stage 5 -->
    <_>
      <maxWeakCount>3</maxWeakCount>
      <stageThreshold>-1.2694040536880493e+00</stageThreshold>
      <weakClassifiers>
        <_>
          <internalNodes>
            0 -1 27 -3442817 -135275617 -215813153 -558569 -764727569
            -74798703 -913088769 -1089</internalNodes>
          <leafValues>
            -8.5573124885559082e-01 3.5106381773948669e-01</leafValues></_>
        <_>
          <internalNodes>
            0 -1 23 -138481921 -543334586 -1848381985 -22008430
            -84173825 -658349894 -322709572 -596320708</internalNodes>
          <leafValues>
            -8.5461795330047607e-01 3.9952641725540161e-01</leafValues></_>
        <_>
          <internalNodes>
            0 -1 56 714601279 1073587393 -217916441 -371210771 972020415
            -376929079 -1299220289 -1073750616</internalNodes>
          <leafValues>
            -7.6584994792938232e-01 5.8584052324295044e-01</leafValues></_></weakClassifiers></_>
    <!-- stage 6 -->
    <_>
      <maxWeakCount>3</maxWeakCount>
      <stageThreshold>-1.3559771776199341e+00</stageThreshold>
      <weakClassifiers>
        <_>
          <internalNodes>
            0 -1 9 -672139265 -153954849 -694566201 -708779561
            -1057243137 -73690181 -933232869 -143394113</internalNodes>
          <leafValues>
            -8.5429143905639648e-01 2.8282827138900757e-01</leafValues></_>
        <_>
          <internalNodes>
            0 -1 5 -538580993 -153921581 -539249665 -290677670 -50760847
            -291813325 -20530193 -145395842</internalNodes>
          <leafValues>
            -8.5069453716278076e-01 4.0457907319068909e-01</leafValues></_>
        <_>
          <internalNodes>
            0 -1 67 1207953343 -1491094697 1162404215 -388635811
            1586483075 -323360622 2084508048 1221569535</internalNodes>
          <leafValues>
            -9.0626478195190430e-01 4.0196645259857178e-01</leafValues></_></weakClassifiers></_>
    <!-- stage 7 -->
    <_>
      <maxWeakCount>3</maxWeakCount>
      <stageThreshold>-1.3327877521514893e+00</stageThreshold>
      <weakClassifiers>
        <_>
          <internalNodes>
            0 -1 0 -2036992001 -35778147 1493703679 -140663996
            -377377793 -3171605 -916641537 -308589</internalNodes>
          <leafValues>
            -8.6331659555435181e-01 2.8780487179756165e-01</leafValues></_>
        <_>
          <internalNodes>
            0 -1 48 -1143491589 797921667 -1790878209 -283961455
            -375395873 -1953865555 -1766794771 -859845721</internalNodes>
          <leafValues>
            -8.3663374185562134e-01 4.2996755242347717e-01</leafValues></_>
        <_>
          <internalNodes>
            0 -1 13 -1126465 -1001237754 -98127713 -442444537 -937432693
            1263646751 -284728465 -43779977</internalNodes>
          <leafValues>
            -7.8395891189575195e-01 5.7114261388778687e-01</leafValues></_></weakClassifiers></_>
    <!-- stage 8 -->
    <_>
      <maxWeakCount>3</maxWeakCount>
      <stageThreshold>-1.3052186965942383e+00</stageThreshold>
      <weakClassifiers>
        <_>
          <internalNodes>
            0 -1 6 -465311241 -581193445 -989224801 -36183905
            -1857691201 -107378520 -1345774353 -4197385</internalNodes>
          <leafValues>
            -8.6321240663528442e-01 1.4042553305625916e-01</leafValues></_>
        <_>
          <internalNodes>
            0 -1 63 -212870921 -1756651637 -536755644 1159719255
            -1065141339 -62578297 -731004504 -571489345</internalNodes>
          <leafValues>
            -7.3503983020782471e-01 4.5236682891845703e-01</leafValues></_>
        <_>
          <internalNodes>
            0 -1 26 810809343 -674164235 1431530267 -1258274026
            -670089223 -543760222 1036725241 -1160856874</internalNodes>
          <leafValues>
            -7.1060436964035034e-01 5.2844125032424927e-01</leafValues></_></weakClassifiers></_>
    <!-- stage 9 -->
    <_>
      <maxWeakCount>4</maxWeakCount>
      <stageThreshold>-1.1399313211441040e+00</stageThreshold>
      <weakClassifiers>
        <_>
          <internalNodes>
            0 -1 65 -604504225 -49298633 -2130325489 -196355701
            -238290827 -641070589 -741886259 -51909793</internalNodes>
          <leafValues>
            -8.8222700357437134e-01 9.0225562453269958e-02</leafValues></_>
        <_>
          <internalNodes>
            0 -1 40 2031685429 -578829954 -774735553 -13182661 -71845702
            -91977649 -342885957 -332350930</internalNodes>
          <leafValues>
            -8.3818346261978149e-01 3.4480673074722290e-01</leafValues></_>
        <_>
          <internalNodes>
            0 -1 20 -881332499 -82341633 234148686 -171068583 -387237018
            -612743116 -33371589 -14292973</internalNodes>
          <leafValues>
            -8.2502293586730957e-01 4.3561688065528870e-01</leafValues></_>
        <_>
          <internalNodes>
            0 -1 31 -1556366433 -527395 -1116084778 -40002492
            -2139423777 -35528293 1026194117 -875753051</internalNodes>
          <leafValues>
            -7.4994075298309326e-01 5.4793161153793335e-01</leafValues></_></weakClassifiers></_>
    <!-- stage 10 -->
    <_>
      <maxWeakCount>4</maxWeakCount>
      <stageThreshold>-1.2538534402847290e+00</stageThreshold>
      <weakClassifiers>
        <_>
          <internalNodes>
            0 -1 1 -974651397 -1459974856 -774256611 -942286001
            -1022444641 -49049111 -175909397 -35651593</internalNodes>
          <leafValues>
            -8.6016947031021118e-01 4.6875000000000000e-02</leafValues></_>
        <_>
          <internalNodes>
            0 -1 58 1967629567 -1415904040 -1055632589 -268446259
            -1982995905 -1431338343 -1130732289 -1912607813</internalNodes>
          <leafValues>
            -8.6070919036865234e-01 3.2400217652320862e-01</leafValues></_>
        <_>
          <internalNodes>
            0 -1 52 -1995573789 -204741641 -1821951268 -2518820
            -762894509 2018375210 -1679582956 -152774620</internalNodes>
          <leafValues>
            -8.9561128616333008e-01 3.3704063296318054e-01</leafValues></_>
        <_>
          <internalNodes>
            0 -1 38 1937397583 1994828131 85275007 -37043237 -372084563
            -1146924770 -1182090273 -63952130</internalNodes>
          <leafValues>
            -7.2911936044692993e-01 4.9450048804283142e-01</leafValues></_></weakClassifiers></_>
    <!-- stage 11 -->
    <_>
      <maxWeakCount>4</maxWeakCount>
      <stageThreshold>-1.0669834613800049e+00</stageThreshold>
      <weakClassifiers>
        <_>
          <internalNodes>
            0 -1 3 -260046865 -619517927 50409540 -542846858 -785930001
            -1743552381 -2012255117 -203953169</internalNodes>
          <leafValues>
            -8.4032756090164185e-01 9.4170406460762024e-02</leafValues></_>
        <_>
          <internalNodes>
            0 -1 53 -1915372739 657576147 -720776359 1070699836
            -1165253137 1805557833 1334379415 -1979731736</internalNodes>
          <leafValues>
            -8.4631574153900146e-01 2.9993504285812378e-01</leafValues></_>
        <_>
          <internalNodes>
            0 -1 39 -8443777 -539486363 -1257138793 1071202745
            1772122416 -620031872 -1024946629 -1086710054</internalNodes>
          <leafValues>
            -7.2364515066146851e-01 4.6266347169876099e-01</leafValues></_>
        <_>
          <internalNodes>
            0 -1 66 -57680585 -473706217 1895862343 1914611023 710613777
            -83685357 -594320632 -121705665</internalNodes>
          <leafValues>
            -7.7750158309936523e-01 4.6982210874557495e-01</leafValues></_></weakClassifiers></_>
    <!-- stage 12 -->
    <_>
      <maxWeakCount>4</maxWeakCount>
      <stageThreshold>-1.1615728139877319e+00</stageThreshold>
      <weakClassifiers>
        <_>
          <internalNodes>
            0 -1 2 -170917889 -125574410 1162742813 -70063592 -675829617
            -387864538 -1152933329 -206045285</internalNodes>
          <leafValues>
            -8.4502619504928589e-01 2.8571428731083870e-02</leafValues></_>
        <_>
          <internalNodes>
            0 -1 16 -379984129 -510442765 -2134676607 -1449481341
            -450870921 -1470742233 -91660169 -562988229</internalNodes>
          <leafValues>
            -8.3278459310531616e-01 2.6777291297912598e-01</leafValues></_>
        <_>
          <internalNodes>
            0 -1 34 -564737940 -212364481 -518406151 -1155803865
            1553940660 -243093502 -376946625 -1824283350</internalNodes>
          <leafValues>
            -7.9588121175765991e-01 3.8509872555732727e-01</leafValues></_>
        <_>
          <internalNodes>
            0 -1 21 -1449139115 -943682786 -1996402345 -242333100
            -2001610855 -1073012288 -102531897 -1912865549</internalNodes>
          <leafValues>
            -6.6203594207763672e-01 5.5409228801727295e-01</leafValues></_></weakClassifiers></_>
    <!-- stage 13 -->
    <_>
      <maxWeakCount>4</maxWeakCount>
      <stageThreshold>-1.1972091197967529e+00</stageThreshold>
      <weakClassifiers>
        <_>
          <internalNodes>
            0 -1 36 -716344833 -2813479 -1660878409 -16329273
            -1429787749 -857549695 -443815057 -546132993</internalNodes>
          <leafValues>
            -8.6756455898284912e-01 -8.7378643453121185e-02</leafValues></_>
        <_>
          <internalNodes>
            0 -1 25 -1828351841 867173253 -1828596962 -106981093
            -1299338775 -1165492077 -1983783483 -1079137113</internalNodes>
          <leafValues>
            -6.8919509649276733e-01 4.1474682092666626e-01</leafValues></_>
        <_>
          <internalNodes>
            0 -1 64 -153968481 -2037348910 -787296102 -1913437995
            1395325871 -1450180567 -927998979 -2068059189</internalNodes>
          <leafValues>
            -7.7095705270767212e-01 4.1729903221130371e-01</leafValues></_>
        <_>
          <internalNodes>
            0 -1 35 -580930305 1843180895 1128333387 -125308704
            -229133904 -595556349 -133646072 -56033552</internalNodes>
          <leafValues>
            -7.5362026691436768e-01 4.5128232240676880e-01</leafValues></_></weakClassifiers></_>
    <!-- stage 14 -->
    <_>
      <maxWeakCount>3</maxWeakCount>
      <stageThreshold>-1.1100630760192871e+00</stageThreshold>
      <weakClassifiers>
        <_>
          <internalNodes>
            0 -1 42 -718941697 -1249881798 -1056954083 -1079537648
            -1006466881 -1157463384 -886269301 -1691825958</internalNodes>
          <leafValues>
            -7.9564803838729858e-01 2.8671327233314514e-01</leafValues></_>
        <_>
          <internalNodes>
            0 -1 19 -783027457 -1802776185 486643093 -722020342
            -1610551047 59279563 25667305 -239081317</internalNodes>
          <leafValues>
            -6.7475628852844238e-01 4.4734367728233337e-01</leafValues></_>
        <_>
          <internalNodes>
            0 -1 29 1447098667 -48658223 -1795058210 2065304344
            511713499 -316096471 1749664510 632010922</internalNodes>
          <leafValues>
            -7.2202008962631226e-01 4.6370577812194824e-01</leafValues></_></weakClassifiers></_>
    <!-- stage 15 -->
    <_>
      <maxWeakCount>4</maxWeakCount>
      <stageThreshold>-1.1086006164550781e+00</stageThreshold>
      <weakClassifiers>
        <_>
          <internalNodes>
            0 -1 11 -439373085 1343914122 269549583 -578555888
            -787353409 -638787455 -1727806797 -774909529</internalNodes>
          <leafValues>
            -8.4778010845184326e-01 7.8740157186985016e-03</leafValues></_>
        <_>
          <internalNodes>
            0 -1 14 -1021839361 -788425600 -1874618355 -636430201
            2119124752 -1744822270 681801732 -278406345</internalNodes>
          <leafValues>
            -7.6369917392730713e-01 3.0783969163894653e-01</leafValues></_>
        <_>
          <internalNodes>
            0 -1 44 -929462095 -662159356 -2147106581 -1735880626
            713742898 -1994915194 -93937167 -334435782</internalNodes>
          <leafValues>
            -7.2651529312133789e-01 4.3111243844032288e-01</leafValues></_>
        <_>
          <internalNodes>
            0 -1 32 -2071271673 -401588199 -1052731951 2043930835
            -879712070 1216553345 612921569 -844376845</internalNodes>
          <leafValues>
            -6.9779908657073975e-01 4.7800722718238831e-01</leafValues></_></weakClassifiers></_>
    <!-- stage 16 -->
    <_>
      <maxWeakCount>4</maxWeakCount>
      <stageThreshold>-1.7934129238128662e+00</stageThreshold>
      <weakClassifiers>
        <_>
          <internalNodes>
            0 -1 47 -719855401 -1726889710 -980922145 -575549387
            -1173712213 -1146486504 -1337354838 -1920486938</internalNodes>
          <leafValues>
            -8.2582581043243408e-01 1.2437810748815536e-01</leafValues></_>
        <_>
          <internalNodes>
            0 -1 68 384061845 966295559 1207965119 -1779642150
            -1308047735 -171400704 -1996250433 -1131132736</internalNodes>
          <leafValues>
            -7.1982038021087646e-01 3.7968918681144714e-01</leafValues></_>
        <_>
          <internalNodes>
            0 -1 55 -83643507 1241596418 285245461 54902801 -903531904
            587268131 -1995705944 1340946859</internalNodes>
          <leafValues>
            -8.3204907178878784e-01 3.8925549387931824e-01</leafValues></_>
        <_>
          <internalNodes>
            0 -1 28 -2122147801 -170213376 -1996422653 -741306051
            -919895927 -1331543672 -1438416671 -1883537203</internalNodes>
          <leafValues>
            -6.3702225685119629e-01 5.2989917993545532e-01</leafValues></_></weakClassifiers></_>
    <!-- stage 17 -->
    <_>
      <maxWeakCount>3</maxWeakCount>
      <stageThreshold>-1.3549593687057495e+00</stageThreshold>
      <weakClassifiers>
        <_>
          <internalNodes>
            0 -1 61 823243219 -1321123261 1107888521 2063613965
            -536166225 -909541184 -1589966178 -1431353151</internalNodes>
          <leafValues>
            -8.4081631898880005e-01 1.0909090936183929e-01</leafValues></_>
        <_>
          <internalNodes>
            0 -1 45 59103679 1003327519 312561877 -1118787048 1770094636
            -131464436 -938964806 -1893039446</internalNodes>
          <leafValues>
            -7.4338150024414062e-01 4.2239785194396973e-01</leafValues></_>
        <_>
          <internalNodes>
            0 -1 33 -107780276 -644873871 1073791042 -566550528
            -662667006 -2013200384 -1450528342 -1101512378</internalNodes>
          <leafValues>
            -7.2066873311996460e-01 4.8533642292022705e-01</leafValues></_></weakClassifiers></_>
    <!-- stage 18 -->
    <_>
      <maxWeakCount>4</maxWeakCount>
      <stageThreshold>-1.1717766523361206e+00</stageThreshold>
      <weakClassifiers>
        <_>
          <internalNodes>
            0 -1 24 -176162337 -754909168 -1525514063 -679244788
            -1516738510 -1941794816 -1602125105 -1324197</internalNodes>
          <leafValues>
            -8.5654008388519287e-01 4.7619048506021500e-02</leafValues></_>
        <_>
          <internalNodes>
            0 -1 46 -159197024 -1341626300 -989806560 914767878
            -2141167213 -402653056 -712040444 -319885657</internalNodes>
          <leafValues>
            -7.5768983364105225e-01 3.4314426779747009e-01</leafValues></_>
        <_>
          <internalNodes>
            0 -1 37 1963057318 -794746607 -2147463138 -1198124901
            -1048500169 1379975810 -1844936567 -266280040</internalNodes>
          <leafValues>
            -8.2429975271224976e-01 3.9703255891799927e-01</leafValues></_>
        <_>
          <internalNodes>
            0 -1 69 8921241 -821738667 1896415313 -1441619888 106651
            -1148092286 17350893 -335003008</internalNodes>
          <leafValues>
            -7.3824018239974976e-01 4.7035422921180725e-01</leafValues></_></weakClassifiers></_>
    <!-- stage 19 -->
    <_>
      <maxWeakCount>5</maxWeakCount>
      <stageThreshold>-1.3854677677154541e+00</stageThreshold>
      <weakClassifiers>
        <_>
          <internalNodes>
            0 -1 43 -667682535 -648478399 83890449 -549887599 478195898
            -24608628 -1404755798 -98893670</internalNodes>
          <leafValues>
            -8.0473935604095459e-01 3.3793103694915771e-01</leafValues></_>
        <_>
          <internalNodes>
            0 -1 54 1963194235 1596096759 603984263 -1119876991 548864
            -87424998 -1983280914 -96232861</internalNodes>
          <leafValues>
            -7.5651794672012329e-01 3.3923646807670593e-01</leafValues></_>
        <_>
          <internalNodes>
            0 -1 60 -754736777 41996562 184566033 1817772117 8624815
            42176656 -1717951829 -843087217</internalNodes>
          <leafValues>
            -8.7093108892440796e-01 3.6076185107231140e-01</leafValues></_>
        <_>
          <internalNodes>
            0 -1 4 -115367717 -665210863 67377156 -1047231667
            -1140096874 -1853750902 -263355989 -1824027973</internalNodes>
          <leafValues>
            -6.0435378551483154e-01 6.5004724264144897e-01</leafValues></_>
        <_>
          <internalNodes>
            0 -1 57 -1794402938 -2146385919 1090568323 -309221886
            1133744771 -1979431936 1040256641 -811445568</internalNodes>
          <leafValues>
            -6.7637288570404053e-01 5.8918476104736328e-01</leafValues></_></weakClassifiers></_></stages>
  <features>
    <_>
      <rect>
        0 0 11 4</rect></_>
    <_>
      <rect>
        0 3 5 6</rect></_>
    <_>
      <rect>
        0 12 5 7</rect></_>
    <_>
      <rect>
        0 16 3 7</rect></_>
    <_>
      <rect>
        0 19 8 6</rect></_>
    <_>
      <rect>
        0 29 5 6</rect></_>
    <_>
      <rect>
        1 0 9 5</rect></_>
    <_>
      <rect>
        1 2 16 5</rect></_>
    <_>
      <rect>
        1 7 7 13</rect></_>
    <_>
      <rect>
        1 8 5 10</rect></_>
    <_>
      <rect>
        1 8 6 12</rect></_>
    <_>
      <rect>
        1 9 3 6</rect></_>
    <_>
      <rect>
        1 9 5 11</rect></_>
    <_>
      <rect>
        1 13 5 10</rect></_>
    <_>
      <rect>
        1 33 3 5</rect></_>
    <_>
      <rect>
        1 34 5 5</rect></_>
    <_>
      <rect>
        1 38 4 4</rect></_>
    <_>
      <rect>
        1 38 6 4</rect></_>
    <_>
      <rect>
        2 0 11 3</rect></_>
    <_>
      <rect>
        3 12 5 3</rect></_>
    <_>
      <rect>
        3 44 6 2</rect></_>
    <_>
      <rect>
        6 10 1 1</rect></_>
    <_>
      <rect>
        8 41 7 3</rect></_>
    <_>
      <rect>
        9 29 2 2</rect></_>
    <_>
      <rect>
        9 46 2 1</rect></_>
    <_>
      <rect>
        10 0 3 1</rect></_>
    <_>
      <rect>
        10 23 11 9</rect></_>
    <_>
      <rect>
        10 44 1 2</rect></_>
    <_>
      <rect>
        11 4 1 1</rect></_>
    <_>
      <rect>
        11 44 8 2</rect></_>
    <_>
      <rect>
        12 1 2 2</rect></_>
    <_>
      <rect>
        13 0 4 2</rect></_>
    <_>
      <rect>
        13 3 2 1</rect></_>
    <_>
      <rect>
        13 42 1 1</rect></_>
    <_>
      <rect>
        14 2 10 7</rect></_>
    <_>
      <rect>
        14 33 1 2</rect></_>
    <_>
      <rect>
        14 43 3 2</rect></_>
    <_>
      <rect>
        15 12 6 4</rect></_>
    <_>
      <rect>
        17 44 1 1</rect></_>
    <_>
      <rect>
        17 47 2 1</rect></_>
    <_>
      <rect>
        20 0 8 4</rect></_>
    <_>
      <rect>
        20 46 2 1</rect></_>
    <_>
      <rect>
        20 47 5 1</rect></_>
    <_>
      <rect>
        21 1 6 1</rect></_>
    <_>
      <rect>
        21 42 1 1</rect></_>
    <_>
      <rect>
        23 47 3 1</rect></_>
    <_>
      <rect>
        24 16 1 1</rect></_>
    <_>
      <rect>
        24 44 6 2</rect></_>
    <_>
      <rect>
        25 44 7 2</rect></_>
    <_>
      <rect>
        26 40 8 3</rect></_>
    <_>
      <rect>
        28 7 7 14</rect></_>
    <_>
      <rect>
        29 2 7 4</rect></_>
    <_>
      <rect>
        31 22 4 4</rect></_>
    <_>
      <rect>
        31 47 2 1</rect></_>
    <_>
      <rect>
        32 3 6 5</rect></_>
    <_>
      <rect>
        32 8 6 13</rect></_>
    <_>
      <rect>
        32 47 1 1</rect></_>
    <_>
      <rect>
        33 40 1 1</rect></_>
    <_>
      <rect>
        33 41 5 3</rect></_>
    <_>
      <rect>
        34 41 5 3</rect></_>
    <_>
      <rect>
        35 37 5 3</rect></_>
    <_>
      <rect>
        37 1 4 2</rect></_>
    <_>
      <rect>
        38 9 4 10</rect></_>
    <_>
      <rect>
        38 13 4 9</rect></_>
    <_>
      <rect>
        38 38 4 4</rect></_>
    <_>
      <rect>
        39 9 3 5</rect></_>
    <_>
      <rect>
        41 12 1 1</rect></_>
    <_>
      <rect>
        41 23 3 5</rect></_>
    <_>
      <rect>
        44 5 2 1</rect></_>
    <_>
      <rect>
        44 8 2 1</rect></_></features></cascade>
</opencv_storage>
